<PMML xmlns="http://www.dmg.org/PMML-4_1" version="4.1">
    <Header copyright="DMG.org"/>
    <DataDictionary numberOfFields="11">
        <DataField name="field_0" optype="continuous" dataType="double"/>
        <DataField name="field_1" optype="continuous" dataType="double"/>
        <DataField name="field_2" optype="continuous" dataType="double"/>
        <DataField name="field_3" optype="continuous" dataType="double"/>
        <DataField name="field_4" optype="continuous" dataType="double"/>
        <DataField name="field_5" optype="continuous" dataType="double"/>
        <DataField name="field_6" optype="continuous" dataType="double"/>
        <DataField name="field_7" optype="continuous" dataType="double"/>
        <DataField name="field_8" optype="continuous" dataType="double"/>
        <DataField name="field_9" optype="continuous" dataType="double"/>
        <DataField name="target" optype="categorical" dataType="string">
        	<Value value="yes"/>
        	<Value value="no"/>
    	</DataField>
    </DataDictionary>
    <RegressionModel modelName="linear SVM" functionName="classification" normalizationMethod="none" targetFieldName="target">
        <MiningSchema>
            <MiningField name="field_0" usageType="active"/>
            <MiningField name="field_1" usageType="active"/>
            <MiningField name="field_2" usageType="active"/>
            <MiningField name="field_3" usageType="active"/>
            <MiningField name="field_4" usageType="active"/>
            <MiningField name="field_5" usageType="active"/>
            <MiningField name="field_6" usageType="active"/>
            <MiningField name="field_7" usageType="active"/>
            <MiningField name="field_8" usageType="active"/>
            <MiningField name="field_9" usageType="active"/>
            <MiningField name="target" usageType="predicted"/>
        </MiningSchema>
        <RegressionTable intercept="0.0" targetCategory="1">
            <NumericPredictor name="field_0" coefficient="-0.6468782693163828"/>
            <NumericPredictor name="field_1" coefficient="-0.5135090401193881"/>
            <NumericPredictor name="field_2" coefficient="-0.052686857870453775"/>
            <NumericPredictor name="field_3" coefficient="-0.18120470255408783"/>
            <NumericPredictor name="field_4" coefficient="0.14192969311543985"/>
            <NumericPredictor name="field_5" coefficient="0.2738620081188322"/>
            <NumericPredictor name="field_6" coefficient="0.31802816136278356"/>
            <NumericPredictor name="field_7" coefficient="0.6102156073169349"/>
            <NumericPredictor name="field_8" coefficient="1.0459237101859185"/>
            <NumericPredictor name="field_9" coefficient="0.976513089485489"/>
        </RegressionTable>
        <RegressionTable intercept="1.185" targetCategory="0"/>
    </RegressionModel>
</PMML>